
\data\
ngram 1=269
ngram 2=685
ngram 3=437

\1-grams:
-2.816705	1	-0.09342169
-2.816705	2	-0.09342168
-2.816705	3	-0.09342169
-2.816705	30	-0.09342169
-1.12629	</s>
-99	<s>	-0.4398254
-1.977429	aan	-0.1357757
-2.816705	achter	-0.09342169
-2.816705	ah	-0.09342169
-2.816705	al	-0.09342169
-2.328453	allemaal	-0.1995554
-2.21085	als	-0.1704932
-2.816705	alsjeblieft	-0.09342168
-2.816705	andere	-0.09342169
-2.21085	antwoord	-0.1827111
-2.652603	antwoorden	-0.09342168
-2.816705	beetje	-0.09342168
-2.816705	beginnen	-0.09342169
-2.816705	begon	-0.09342168
-2.328453	begroet	-0.1995554
-2.816705	begroeten	-0.09342169
-2.816705	behoefte	-0.0934217
-2.816705	bekijken	-0.0934217
-2.816705	ben	-0.09342168
-2.816705	benieuwd	-0.09342168
-2.816705	bent	-0.09342168
-2.328453	beweeg	-0.1744778
-2.816705	bewegen	-0.09342168
-2.816705	beweging	-0.0934217
-2.652603	bij	-0.09342168
-2.652603	binnen	-0.09342168
-2.816705	blauw	-0.09342168
-2.816705	blauwe	-0.09342168
-2.328453	boot	-0.1744778
-2.652603	broek	-0.09342169
-2.816705	broeken	-0.09342169
-2.816705	buurt	-0.09342169
-2.816705	collectie	-0.09342168
-2.816705	cut	-0.09342168
-2.328453	daar	-0.09342168
-2.816705	dacht	-0.09342168
-2.21085	dan	-0.09342168
-2.04222	dat	-0.09342169
-1.748782	de	-0.2931566
-2.816705	denk	-0.0934217
-2.652603	denken	-0.09342168
-2.652603	deze	-0.09342168
-2.21085	die	-0.1704932
-2.816705	direct	-0.09342168
-2.816705	dit	-0.09342168
-2.816705	doe	-0.09342169
-2.816705	doen	-0.09342168
-2.21085	donker	-0.1704932
-2.816705	donkerblauwe	-0.09342169
-2.816705	donkerder	-0.09342168
-2.652603	donkere	-0.09342167
-2.04222	door	-0.1320615
-2.652603	dus	-0.09342168
-2.21085	echt	-0.09342168
-1.385204	een	-0.202479
-2.652603	eens	-0.0934217
-2.816705	eerst	-0.09342168
-2.652603	ehm	-0.09342168
-2.816705	eigenlijk	-0.09342169
-2.04222	en	-0.13025
-2.21085	er	-0.1704932
-2.816705	erbij	-0.09342169
-2.816705	erboven	-0.09342168
-2.816705	eronder	-0.09342168
-2.21085	even	-0.1539458
-2.328453	fijn	-0.1995554
-2.816705	fit	-0.09342168
-2.816705	floor	-0.09342168
-2.652603	ga	-0.2642578
-2.652603	gaan	-0.09342168
-2.328453	gaf	-0.152752
-2.816705	gedachten	-0.09342168
-2.816705	gekozen	-0.0934217
-2.816705	gelijk	-0.09342168
-2.816705	geluisterd	-0.0934217
-2.816705	gemaakt	-0.09342168
-2.652603	genoeg	-0.0934217
-2.816705	gepresenteerd	-0.09342169
-2.652603	gesloten	-0.2642578
-2.816705	gesprek	-0.09342169
-2.816705	gesprekken	-0.09342169
-2.816705	geval	-0.09342168
-2.816705	geven	-0.0934217
-2.816705	ging	-0.09342168
-2.652603	goed	-0.09342168
-2.816705	goede	-0.09342168
-2.816705	goedemiddag	-0.09342168
-2.816705	goeie	-0.09342169
-2.816705	groet	-0.09342168
-2.04222	haar	-0.1357757
-2.04222	had	-0.1995554
-2.816705	hallo	-0.0934217
-2.816705	he	-0.09342168
-2.328453	heb	-0.1995554
-2.328453	hebt	-0.09342168
-2.816705	heeft	-0.09342169
-2.816705	hele	-0.09342169
-2.04222	helemaal	-0.1432544
-2.652603	helpen	-0.2642578
-2.816705	hem	-0.09342169
-2.118402	het	-0.09342169
-2.816705	hey	-0.09342169
-2.816705	hier	-0.09342168
-2.816705	hieronder	-0.09342169
-2.652603	hoe	-0.09342168
-2.328453	hoog	-0.1432545
-2.652603	hoor	-0.09342169
-2.816705	ie	-0.09342168
-2.816705	ieder	-0.09342169
-2.816705	iets	-0.0934217
-1.552041	ik	-0.1822274
-1.826434	in	-0.1650246
-2.816705	informatie	-0.0934217
-1.921061	is	-0.09342168
-1.489036	je	-0.1601202
-2.21085	jeans	-0.1432544
-2.816705	jeetje	-0.09342169
-2.118402	jij	-0.09342169
-2.652603	jou	-0.09342168
-2.816705	jouw	-0.09342169
-2.816705	juist	-0.0934217
-2.328453	kan	-0.1744778
-2.816705	kassa	-0.09342168
-2.816705	keer	-0.09342168
-2.816705	keuzes	-0.09342168
-2.816705	kijk	-0.0934217
-2.652603	klant	-0.0934217
-2.21085	kleur	-0.1263265
-2.816705	kleurtje	-0.09342168
-2.652603	klik	-0.09342169
-2.816705	klikken	-0.09342169
-2.816705	klopt	-0.0934217
-2.816705	knoop	-0.09342168
-2.816705	knop	-0.09342169
-2.328453	komt	-0.09342168
-2.816705	kon	-0.09342168
-2.328453	kun	-0.1995554
-2.118402	laag	-0.224292
-2.816705	laat	-0.09342169
-2.816705	langs	-0.09342168
-2.816705	lekker	-0.09342168
-2.816705	leuk	-0.09342169
-2.816705	leuke	-0.09342169
-2.21085	licht	-0.09342168
-2.816705	lichte	-0.09342168
-2.816705	lichter	-0.09342169
-2.816705	lijkt	-0.09342169
-2.816705	lijst	-0.09342168
-2.652603	links	-0.09342169
-2.816705	maak	-0.09342169
-2.328453	maar	-0.09342168
-2.652603	maat	-0.09342168
-2.816705	maatje	-0.09342169
-2.816705	me	-0.09342169
-2.816705	meerdere	-0.09342168
-2.21085	met	-0.1704933
-2.816705	middag	-0.09342169
-2.816705	mij	-0.09342168
-2.816705	mijn	-0.09342169
-2.816705	misschien	-0.09342168
-2.328453	model	-0.09342169
-2.21085	moet	-0.152752
-2.816705	mooi	-0.0934217
-2.816705	mooie	-0.09342169
-2.04222	naar	-0.1432545
-2.816705	nagedacht	-0.09342168
-2.21085	nee	-0.152752
-2.652603	net	-0.09342169
-2.04222	niet	-0.09342168
-2.652603	nieuwe	-0.2642578
-2.652603	niks	-0.2642578
-2.652603	nog	-0.09342169
-2.816705	nooit	-0.09342168
-2.21085	nou	-0.1704932
-1.748782	of	-0.1470741
-2.816705	oh	-0.09342168
-2.816705	oke	-0.09342167
-2.328453	om	-0.09342169
-2.816705	oogcontact	-0.0934217
-2.816705	ook	-0.0934217
-2.328453	op	-0.1995554
-2.21085	over	-0.1704932
-2.816705	overdonderd	-0.0934217
-2.652603	pak	-0.09342168
-2.652603	pakken	-0.2642578
-2.816705	perfect	-0.09342169
-2.816705	poeh	-0.09342169
-2.816705	positie	-0.09342169
-2.652603	precies	-0.09342169
-2.816705	presenteerde	-0.0934217
-2.816705	prima	-0.0934217
-2.816705	proberen	-0.09342168
-2.816705	qua	-0.09342169
-2.816705	reageerde	-0.0934217
-2.816705	recht	-0.09342169
-2.816705	rechts	-0.0934217
-2.816705	samengevat	-0.09342168
-2.652603	samenvatting	-0.2642578
-2.816705	scherm	-0.09342168
-2.652603	skinny	-0.09342169
-2.816705	skippen	-0.09342168
-2.21085	slim	-0.2994165
-2.816705	spijkerbroek	-0.09342168
-2.816705	staan	-0.09342168
-2.816705	staat	-0.09342168
-2.816705	start	-0.09342168
-2.816705	stelde	-0.09342168
-2.816705	stellen	-0.09342168
-2.816705	taille	-0.09342168
-1.748782	te	-0.128964
-2.816705	terug	-0.09342168
-2.816705	the	-0.09342169
-2.816705	tijdens	-0.09342169
-2.816705	totaal	-0.09342169
-2.816705	tuurlijk	-0.09342169
-2.816705	u	-0.09342168
-2.652603	uitleg	-0.09342169
-1.977429	van	-0.1704932
-2.652603	vanuit	-0.2642578
-2.816705	vast	-0.09342168
-2.21085	verder	-0.09342169
-2.816705	verkeerde	-0.09342168
-2.816705	verkoopgesprek	-0.09342168
-2.816705	verteld	-0.0934217
-2.652603	vertelde	-0.0934217
-2.816705	vind	-0.0934217
-2.816705	vinden	-0.09342168
-2.816705	vinger	-0.0934217
-2.04222	voor	-0.1140826
-2.816705	vraag	-0.09342169
-2.21085	vragen	-0.1432544
-2.816705	vroeg	-0.09342168
-2.652603	waarmee	-0.2642578
-2.816705	wacht	-0.09342169
-2.816705	was	-0.09342169
-1.469914	wat	-0.202528
-2.816705	we	-0.09342169
-2.328453	weer	-0.09342168
-2.652603	weet	-0.09342169
-1.921061	wel	-0.1220745
-2.816705	welke	-0.09342169
-2.816705	werk	-0.09342169
-2.816705	wijd	-0.09342168
-2.652603	wil	-0.09342169
-2.652603	wilt	-0.09342169
-2.816705	winkel	-0.09342168
-2.816705	wordt	-0.09342168
-2.816705	yours	-0.09342168
-2.652603	zat	-0.09342169
-2.04222	ze	-0.13025
-2.652603	zeggen	-0.09342168
-2.816705	zelf	-0.09342168
-2.652603	zien	-0.09342168
-2.328453	zijn	-0.1995554
-2.816705	zit	-0.09342168
-2.652603	zitten	-0.09342169
-2.652603	zo	-0.0934217
-2.816705	zodat	-0.09342168
-2.21085	zoek	-0.1539458
-2.328453	zoekt	-0.1995554
-2.816705	zonder	-0.09342169
-2.118402	zou	-0.09342169
-2.816705	zwart	-0.09342168
-2.652603	zwarte	-0.2642578

\2-grams:
-0.7047983	1 beweeg
-1.165569	2 beweeg
-1.102938	2 te
-1.165569	2 weer
-0.997576	3 beweeg
-0.9540693	3 te
-0.7104594	30 alsjeblieft
-2.119566	<s> ah	-0.2259095
-2.442742	<s> als
-0.7358212	<s> de	-1.180152
-2.119566	<s> dit	-0.2259095
-2.715201	<s> doe
-1.825652	<s> dus	-0.3508482
-1.669041	<s> een	-0.1340705
-2.661348	<s> ehm
-1.985683	<s> en	-0.2259095
-2.715201	<s> goedemiddag
-2.715201	<s> hallo
-2.511778	<s> heb
-1.985683	<s> helemaal	-0.2259095
-2.03475	<s> het	-0.1340705
-2.153695	<s> hey
-1.656944	<s> hoe	-0.2478896
-1.614025	<s> ik	-0.05631294
-2.168165	<s> in
-1.880992	<s> je
-2.715201	<s> jeetje
-0.6128818	<s> jij	-0.4340187
-2.511778	<s> kan
-2.138237	<s> klik	-0.1340705
-2.715201	<s> klopt
-2.383191	<s> laag
-2.060442	<s> licht	-0.1340705
-2.153695	<s> mooi	-0.1340705
-2.442742	<s> nee
-2.442742	<s> nou
-2.153695	<s> oh
-1.444154	<s> oke	-0.2055388
-2.119566	<s> perfect	-0.2259095
-2.715201	<s> poeh
-2.153695	<s> prima	-0.1340705
-2.715201	<s> the
-2.715201	<s> tuurlijk
-1.98752	<s> van	-0.1340705
-2.105258	<s> vanuit	-0.2259095
-2.330829	<s> voor
-1.713331	<s> wat	-0.2259095
-2.661348	<s> wil
-1.464867	aan dat	-0.7630287
-0.794888	aan een	-0.4878444
-1.4928	aan jeans	-0.1340705
-1.4928	aan met
-1.390462	aan te
-1.280323	aan wat	-0.1340705
-0.9540693	achter de	-0.1340705
-0.9633678	achter in	-0.1340705
-0.702215	ah dan	-0.2259095
-0.7104594	al jouw	-0.3508482
-0.5152933	allemaal gesloten	-0.2259095
-1.164925	allemaal nou
-1.279486	als er
-0.6023874	als je	-0.08018861
-1.263487	als ze	-0.3508482
-0.5954325	alsjeblieft </s>
-0.702215	andere jeans	-0.1340705
-1.542858	antwoord 1
-0.8819478	antwoord 2
-0.8819478	antwoord 3
-1.461353	antwoord aan
-1.542858	antwoord geven
-0.8039063	antwoorden </s>
-0.997576	antwoorden zijn
-1.299454	beetje donkere	-0.1340705
-1.088282	beetje een
-1.272866	beetje licht
-1.304369	beetje wijd
-0.702215	beginnen even
-0.6444212	begon een
-1.153372	begroet haar	-0.1340705
-0.4889673	begroet je	-0.4546471
-0.6945559	begroeten van	-0.1340705
-0.697094	behoefte helemaal	-0.1340705
-0.697094	bekijken door
-1.18213	ben benieuwd
-1.165569	ben op
-1.178416	ben zo	-0.3508482
-0.5954325	benieuwd </s>
-0.5954325	bent </s>
-0.4527753	beweeg je	-0.2259095
-0.5954325	bewegen </s>
-0.697094	beweging en	-0.1340705
-0.963838	bij </s>
-1.299454	bij helpen
-1.148684	bij ik	-0.3508482
-1.304369	bij kon	-0.1340705
-1.143673	binnen helemaal
-1.178416	binnen nieuwe	-0.1340705
-1.178416	binnen vanuit
-0.6820837	blauw of	-0.2259095
-0.997576	blauwe boot
-0.992521	blauwe slim
-0.4790288	boot cut	-0.1113579
-1.165569	broek heb	-0.1340705
-1.165569	broek zijn
-1.158147	broek zoek	-0.2259095
-1.00626	broeken bij	-0.2979759
-1.008756	broeken erbij	-0.3508482
-0.7104594	buurt bent	-0.1340705
-0.5954325	collectie </s>
-1.158147	cut die	-0.2259095
-1.158147	cut echt
-1.129665	cut wel
-1.143673	daar had
-1.165569	daar komt
-1.165569	daar kun
-0.6581647	dacht je	-0.2531893
-1.359792	dan die
-1.37166	dan heb	-0.2259095
-1.392499	dan pak	-0.1340705
-1.27498	dan te	-0.1340705
-1.326017	dan van
-1.471905	dat de	-0.2259095
-1.279238	dat een	-0.1340705
-1.376987	dat ik	-0.1340705
-1.5372	dat is	-0.1340705
-1.341902	dat je	-0.2659957
-1.686454	dat staat	-0.1340705
-1.33081	dat wat	-0.1340705
-1.5372	dat wel	-0.2259095
-1.686454	dat wordt
-1.57394	dat ze	-0.5504206
-1.835606	de donkerblauwe	-0.2259095
-1.835606	de kassa	-0.1340705
-0.4464274	de klant	-0.6441917
-1.835606	de taille	-0.1340705
-1.825129	de uitleg
-1.181156	de winkel	-0.06618554
-1.825129	de zwarte	-0.2259095
-0.697094	denk dat	-0.1340705
-0.9037432	denken </s>
-1.136613	denken aan	-0.1340705
-1.178416	denken hoor
-1.272866	deze donker
-1.088282	deze een
-1.304369	deze knop	-0.2259095
-1.299454	deze zwarte	-0.2259095
-1.306123	die bekijken
-0.6325473	die jij	-0.5269395
-1.306123	die lijkt
-0.6444212	direct een
-0.6920327	dit is	-0.2259095
-0.7047983	doe maar
-0.5954325	doen </s>
-1.306123	donker blauw	-0.2259095
-0.640278	donker blauwe
-1.218749	donker of
-0.7047983	donkerblauwe boot	-0.2259095
-0.6820837	donkerder of
-0.8039063	donkere </s>
-0.992521	donkere kleur	-0.1340705
-1.476471	door al	-0.3508482
-1.203091	door een
-1.476471	door hieronder
-0.74816	door te	-0.3987689
-0.8860825	dus een	-0.1340705
-0.9103476	dus je	-0.3508482
-1.336986	echt helemaal
-1.398596	echt iets
-1.392499	echt niks
-1.392499	echt precies	-0.2259095
-1.336986	echt voor
-2.198381	een andere	-0.1340705
-2.034465	een antwoord
-1.544732	een beetje	-0.04001171
-2.169254	een donkere	-0.1340705
-2.198381	een gesprek
-2.198381	een goede
-1.580372	een hele	-0.2259095
-1.234379	een hoog	-0.4477582
-1.534854	een jeans	-0.1340705
-2.198381	een keer	-0.1340705
-2.198381	een keuzes	-0.07289592
-2.169254	een klant
-1.521434	een laag	-0.3508482
-2.198381	een leuk	-0.2259095
-2.198381	een leuke	-0.3508482
-1.249449	een lichte	-0.659346
-2.198381	een mooie
-1.073027	een skinny	-0.4891509
-2.198381	een totaal
-2.198381	een vraag	-0.3508482
-2.034465	een vragen
-0.8860825	eens een	-0.1340705
-0.9062081	eens wat
-0.6920327	eerst wel
-0.992521	ehm even
-0.992521	ehm nou
-0.6870297	eigenlijk in
-1.557971	en begroet	-0.1340705
-1.587669	en ga	-0.1340705
-1.596477	en groet	-0.1340705
-1.541319	en moet	-0.2259095
-0.8567837	en wat	-0.2659957
-1.587669	en zat	-0.1340705
-1.541319	en zoek	-0.1340705
-0.6343884	er even	-0.6518782
-1.306123	er meerdere
-1.147067	er wat	-0.1340705
-0.7104594	erbij ging	-0.3508482
-0.6820837	erboven of	-0.1340705
-0.5954325	eronder </s>
-1.395009	even denken
-1.170012	even een	-0.1340705
-1.36626	even verder	-0.1340705
-0.685913	even wat	-0.5059043
-0.5130808	fijn zijn	-0.1340705
-1.15911	fijn zou	-0.3508482
-0.963838	fit </s>
-1.272866	fit dan
-1.218864	fit in	-0.1340705
-1.202259	fit of
-0.6920327	floor is
-0.3380271	ga verder	-0.3508482
-0.8039063	gaan </s>
-1.00626	gaan pakken	-0.1340705
-0.5925258	gaf aan	-1.24015
-1.111464	gaf een
-0.9037432	gedachten </s>
-1.143673	gedachten had	-0.1340705
-1.18213	gedachten qua	-0.1340705
-0.697094	gekozen voor	-0.0854864
-0.8860825	gelijk een
-0.997576	gelijk weer	-0.1340705
-0.697094	geluisterd naar
-0.5954325	gemaakt </s>
-0.9230083	genoeg ik	-0.1340705
-1.008756	genoeg informatie	-0.3508482
-0.7047983	gepresenteerd hebt	-0.2259095
-0.3380271	gesloten vragen	-0.310963
-0.6945559	gesprek aan
-0.7047983	gesprekken kun
-0.8860825	geval een	-0.1340705
-0.997576	geval fijn
-0.697094	geven door
-0.7092021	ging pakken	-0.3508482
-0.9037432	goed </s>
-1.165569	goed hebt	-0.1340705
-1.05979	goed ik	-0.07579231
-0.7092021	goede samenvatting
-0.7092021	goedemiddag waarmee
-0.7104594	goeie middag
-0.6820837	groet de	-0.1340705
-0.7329979	haar </s>
-1.54113	haar behoefte	-0.1340705
-1.54113	haar buurt	-0.1340705
-1.438623	haar is	-0.2259095
-1.533464	haar maat	-0.1340705
-1.464867	haar niet	-0.1340705
-0.7007907	had </s>
-1.420342	had en	-0.3508482
-1.301242	had ik
-0.7634026	had je	-0.08018861
-0.6652031	hallo ik
-0.5954325	he </s>
-1.08495	heb ik	-0.2259095
-0.4889673	heb je	-0.08018861
-1.304369	hebt gekozen	-0.7030307
-1.25411	hebt helemaal	-0.2259095
-1.25411	hebt niet	-0.2259095
-1.304369	hebt samengevat	-0.1340705
-0.7047983	heeft komt	-0.3508482
-0.7104594	hele lijst	-0.2259095
-0.8137778	helemaal goed	-0.1868145
-1.476844	helemaal laat
-1.411367	helemaal niet
-1.470337	helemaal nieuwe
-1.470337	helemaal niks	-0.2259095
-0.3040745	helpen </s>
-0.7104594	hem donkerder
-1.398596	het begroeten	-0.1340705
-1.359792	het moet
-1.398596	het ook
-1.398596	het scherm
-1.398596	het verkoopgesprek
-0.997576	hey daar
-1.008756	hey goeie
-0.992521	hier als
-0.997576	hier om
-0.702215	hieronder met
-1.165569	hoe begroet	-0.3508482
-1.18213	hoe knoop
-1.18213	hoe start
-1.208484	hoog een
-1.435537	hoog licht	-0.2259095
-0.8087857	hoog model	-0.2290719
-1.346013	hoog of	-0.1340705
-1.435537	hoog slim
-0.997576	hoor daar
-0.9230083	hoor ik	-0.1340705
-0.6996469	ie laag	-0.4477582
-0.7104594	ieder geval	-0.06978002
-0.697094	iets voor
-1.390355	ik ben	-0.1910101
-1.426338	ik denk	-0.1340705
-1.928598	ik echt	-0.2259095
-2.035991	ik eens	-0.1340705
-1.928598	ik er	-0.1340705
-1.421036	ik ga	-0.1340705
-1.426338	ik kijk
-1.426338	ik maak	-0.3508482
-2.035991	ik nog
-2.05827	ik nooit	-0.1340705
-1.090631	ik pak	-0.3909344
-2.05827	ik u	-0.3508482
-2.035991	ik vertelde
-2.035991	ik weet	-0.1340705
-2.035991	ik zeggen
-1.928598	ik zoek
-1.729594	in beweging	-0.1340705
-1.52592	in de	-0.1340705
-0.9544992	in een	-0.1340705
-1.039647	in gedachten	-0.1710799
-1.623414	in haar	-0.1340705
-1.039647	in ieder	-0.2259095
-0.697094	informatie had	-0.3508482
-1.073197	is </s>
-1.535267	is antwoord
-1.553167	is boot
-1.535267	is echt
-1.29802	is je	-0.2259095
-1.501538	is naar	-0.2259095
-1.287981	is wat	-0.2259095
-1.594765	is yours
-1.236907	je </s>
-1.97882	je antwoord
-1.472834	je dan	-0.07900234
-1.902425	je dat	-0.2259095
-1.379431	je de	-0.4112315
-1.97882	je die
-1.237346	je een	-0.07842014
-2.136778	je eigenlijk
-1.97882	je er	-0.1340705
-2.108874	je genoeg	-0.3508482
-1.447533	je haar	-0.08165152
-2.136778	je hem
-1.938945	je het
-1.373327	je in	-0.2659957
-1.486059	je komt	-0.1340705
-2.108874	je maat	-0.07714914
-2.108874	je precies
-1.868739	je van	-0.3508482
-2.136778	je verteld	-0.1340705
-1.516233	je vinger	-0.1108296
-1.527479	je wat
-1.837479	je wel
-2.108874	je wilt	-0.3508482
-1.476844	jeans he	-0.1340705
-1.448145	jeans hoog	-0.1340705
-1.470337	jeans wil	-0.4477582
-1.448145	jeans zoekt
-0.8152043	jeans zonder	-0.1472062
-0.6558437	jeetje wat
-1.760477	jij begon
-1.70083	jij gaf	-0.2659957
-1.760477	jij gepresenteerd	-0.5269395
-1.70083	jij hebt	-0.7030308
-1.760477	jij me
-1.760477	jij presenteerde	-0.1478668
-1.760477	jij reageerde	-0.2259095
-1.760477	jij stelde	-0.0912938
-1.746573	jij vertelde	-0.1340705
-1.760477	jij vroeg	-0.1340704
-1.70083	jij zoekt	-0.2259095
-1.652296	jij zou	-0.2259095
-0.9037432	jou </s>
-1.18213	jou gemaakt
-1.143673	jou niet	-0.1340705
-0.702215	jouw vragen	-0.3508482
-1.282557	juist hoog	-0.1161068
-1.272866	juist licht
-1.304369	juist lichter
-1.272866	juist slim
-0.4564004	kan ik	-0.3508482
-0.5954325	kassa </s>
-0.6444212	keer een	-0.1340705
-0.9776999	keuzes aan	-0.1340705
-0.992521	keuzes nou
-1.008756	kijk eerst
-1.008756	kijk zelf
-1.055785	klant </s>
-1.486615	klant als	-0.1340705
-1.456339	klant dat	-0.1340705
-1.37643	klant de
-1.502583	klant gaf	-1.110516
-1.269185	klant je	-0.1340705
-1.539408	klant was	-0.3508482
-0.7040151	kleur </s>
-1.463022	kleur haar	-0.1340705
-1.463022	kleur had
-1.463022	kleur ze	-0.1340705
-1.540759	kleur zit	-0.6518782
-0.5954325	kleurtje </s>
-1.008756	klik hier
-0.997576	klik om	-0.1340705
-0.702215	klikken met
-0.697094	klopt helemaal
-0.6581647	knoop je
-0.7047983	knop om	-0.2259095
-1.009953	komt een
-1.116096	komt in	-0.1340705
-1.143673	komt ze	-0.3508482
-0.7092021	kon gaan	-0.1340705
-0.4889673	kun je
-1.15911	kun jij
-0.732526	laag model	-0.1340705
-0.7369842	laag vind	-0.1340705
-1.397534	laag zitten	-0.4477582
-0.7047983	laat maar
-0.5954325	langs </s>
-0.7092021	lekker zitten	-0.1340705
-0.7104594	leuk kleurtje	-0.2259095
-0.7104594	leuke spijkerbroek	-0.1411023
-0.963838	licht </s>
-1.272866	licht moet
-1.272866	licht nee	-0.1340705
-1.202259	licht of	-0.2259095
-1.00626	lichte broek
-0.992521	lichte kleur	-0.4051631
-0.702215	lichter moet
-0.702215	lijkt echt
-0.7092021	lijst gesloten	-0.2259095
-0.9825842	links naar
-0.992521	links over	-0.1340705
-0.7104594	maak oogcontact	-0.3508482
-1.178416	maar eens
-1.165569	maar gaf	-0.3508482
-1.18213	maar maatje
-0.9037432	maat </s>
-1.158147	maat dan	-0.1340705
-1.18213	maat zodat	-0.1340705
-0.7104594	maatje 30
-0.7104594	me vast
-0.7092021	meerdere antwoorden
-1.218749	met de
-0.6023874	met je	-0.1340705
-1.306123	met mijn	-0.3508482
-0.6558437	middag wat
-0.5954325	mij </s>
-0.7104594	mijn werk	-0.3508482
-0.6444212	misschien een	-0.2259095
-1.055785	model </s>
-1.502583	model fijn	-0.3508482
-1.401468	model in	-0.1340705
-1.502583	model op	-0.1340705
-1.486615	model slim	-0.1340705
-1.456339	model ze	-0.1340705
-1.471213	model zou
-0.6034313	moet ie	-0.4477582
-1.230047	moet in
-0.6652031	mooi ik	-0.1340705
-0.702215	mooie donker
-0.7409865	naar een	-0.3508482
-1.411367	naar haar	-0.1340705
-1.470337	naar links	-0.1340705
-1.476844	naar recht
-1.246979	naar wat
-0.6996469	nagedacht het
-0.5942747	nee dat	-0.1004425
-1.305746	nee wacht
-1.00626	net binnen	-0.07751186
-1.008756	net erboven	-0.1340705
-1.467849	niet hoor	-0.1340705
-1.377474	niet is	-0.2259095
-1.429213	niet over
-1.224829	niet wat
-1.467849	niet weet
-1.415689	niet zou	-0.1340705
-0.3404162	nieuwe collectie	-0.2259095
-0.336527	niks voor	-0.1556061
-0.9825842	nog niet
-0.992521	nog verder
-0.7092021	nooit zo	-0.1340705
-1.171786	nou ik
-1.271413	nou laag
-0.6343884	nou nee	-0.1340705
-1.715019	of donker	-0.2259095
-1.354126	of een	-0.1340704
-1.796551	of eronder	-0.1340705
-1.63011	of is
-0.8114638	of juist	-0.21483
-1.78319	of klik	-0.1340705
-1.692185	of laag	-0.1340705
-1.796551	of misschien	-0.2259095
-1.78319	of net	-0.1340705
-1.796551	of zwart	-0.2259095
-1.00626	oh ehm
-0.992521	oh nee
-1.143673	oke en	-0.1340705
-1.05979	oke ik	-0.1340705
-1.036932	oke wat
-1.158147	om antwoord	-0.06961924
-1.102938	om te
-1.158147	om verder	-0.1340705
-0.697094	oogcontact en	-0.1340705
-0.697094	ook niet
-1.120449	op de	-0.1340705
-0.5117778	op zoek	-0.1530932
-0.6393819	over deze	-0.2259095
-1.271413	over het
-1.306123	over nagedacht
-0.697094	overdonderd door	-0.3508482
-1.158147	pak er	-0.5269395
-1.05979	pak ik	-0.1340705
-1.129665	pak wel	-0.1340705
-0.3040745	pakken </s>
-0.6558437	perfect wat	-0.2259095
-0.6558437	poeh wat
-0.7047983	positie begroet	-0.3508482
-0.992521	precies donker
-0.9062081	precies wat	-0.2259095
-1.008756	presenteerde direct
-1.008756	presenteerde gelijk	-0.07347246
-0.697094	prima en	-0.1340705
-0.5954325	proberen </s>
-0.702215	qua kleur	-0.1340705
-0.697094	reageerde door	-0.2259095
-0.702215	recht over
-0.697094	rechts naar	-0.1340705
-0.5954325	samengevat </s>
-0.3357788	samenvatting van	-0.1340705
-0.6820837	scherm te
-1.272866	skinny die	-0.2259095
-1.272866	skinny jeans	-0.2701287
-1.263387	skinny jij	-0.2259095
-1.299454	skinny net	-0.2259095
-0.5954325	skippen </s>
-0.3019827	slim fit	-0.03813203
-0.8039063	spijkerbroek </s>
-0.997576	spijkerbroek daar
-0.5954325	staan </s>
-0.7092021	staat jou	-0.1340705
-0.6581647	start je
-1.165569	stelde allemaal	-0.1340704
-1.009953	stelde een	-0.1340705
-1.165569	stelde weer
-0.5954325	stellen </s>
-0.6820837	taille of	-0.1340705
-1.781413	te antwoorden
-1.795294	te bewegen
-1.107883	te denken	-0.5670257
-1.781413	te gaan	-0.1340705
-1.795294	te klikken
-1.795294	te stellen
-1.710831	te vragen	-0.2659957
-1.781413	te zeggen
-1.107883	te zien	-0.07605796
-0.5954325	terug </s>
-0.7104594	the floor
-0.7104594	tijdens gesprekken
-0.7104594	totaal verkeerde
-0.6558437	tuurlijk wat
-0.7092021	u helpen	-0.3508482
-1.008756	uitleg tijdens
-1.00626	uitleg wilt
-0.9393587	van achter	-0.1340705
-1.518255	van dat	-0.1340705
-1.440857	van de	-0.1340705
-0.9375762	van deze	-0.1141856
-1.590128	van links
-1.598195	van rechts	-0.1340705
-0.3404162	vanuit welke	-0.3508482
-0.6920327	vast wel
-0.963838	verder </s>
-1.25411	verder door
-1.272866	verder met	-0.3508482
-1.202259	verder te	-0.1340705
-0.7092021	verkeerde samenvatting
-0.5954325	verkoopgesprek </s>
-0.697094	verteld had	-0.1340705
-0.9540693	vertelde de	-0.1340705
-0.9230083	vertelde ik
-0.6652031	vind ik	-0.1340705
-0.5954325	vinden </s>
-0.9037432	vinger </s>
-1.158147	vinger over
-1.136613	vinger van	-0.08202753
-1.808657	voor broek	-0.1868145
-1.681888	voor haar	-0.2259095
-1.451043	voor ik	-0.0807173
-1.411571	voor je
-1.175038	voor jou
-1.75859	voor kan
-1.731489	voor kleur	-0.08104476
-1.823977	voor mij
-1.75859	voor model	-0.1340705
-1.659061	voor van	-0.1340705
-1.808657	voor waarmee
-1.399173	voor wat
-1.823977	voor we
-0.7104594	vraag heeft	-0.3508482
-0.6867663	vragen </s>
-1.448145	vragen allemaal
-1.448145	vragen maar	-0.3508482
-1.346013	vragen te
-1.246979	vragen wat	-0.1340705
-1.136613	vroeg aan	-0.1340705
-1.143673	vroeg naar	-0.1340705
-1.036932	vroeg wat	-0.1340705
-0.3387792	waarmee kan	-0.1340705
-0.6558437	wacht wat
-0.7104594	was overdonderd	-0.3508482
-1.390844	wat broeken	-0.5938863
-1.390844	wat dacht	-0.4477582
-1.722888	wat de	-0.1340705
-0.9765797	wat een	-0.1569366
-1.871802	wat had	-0.1340705
-1.241853	wat ik
-1.816295	wat is	-0.2259095
-1.902465	wat jij	-0.2259095
-2.039154	wat uitleg
-0.901723	wat voor	-0.2979759
-1.871802	wat ze	-0.2259095
-2.039154	wat zien
-0.7104594	we beginnen
-1.165569	weer allemaal
-1.009953	weer een	-0.1340705
-1.102938	weer te
-1.00626	weet genoeg	-0.1340705
-0.9103476	weet je
-1.587143	wel bij
-1.596109	wel doen	-0.2259095
-0.8903694	wel even	-0.1340705
-1.596109	wel geluisterd
-1.587143	wel goed
-1.596109	wel langs	-0.3508482
-0.7104594	welke positie	-0.3508482
-0.702215	werk als	-0.3508482
-0.6820837	wijd of
-0.9103476	wil je
-1.008756	wil proberen	-0.4477583
-0.8860825	wilt een	-0.1340705
-1.008756	wilt skippen
-0.8039063	winkel </s>
-1.00626	winkel binnen
-0.6996469	wordt het
-0.7092021	yours hoe
-0.9103476	zat je	-0.1340705
-0.9540693	zat te	-0.1340705
-1.494882	ze aan	-0.6518782
-0.8402151	ze een	-0.3508482
-1.452935	ze in	-0.1340705
-1.557971	ze op	-0.2259095
-1.480445	ze wel	-0.3508482
-1.587669	ze zat	-0.1340705
-1.557971	ze zoekt	-0.2259095
-0.8039063	zeggen </s>
-0.8860825	zeggen een
-0.6920327	zelf wel
-0.9037432	zien </s>
-1.102938	zien of	-0.1340705
-1.150849	zien zou
-0.4545649	zijn </s>
-1.170819	zijn kun
-0.6820837	zit te	-0.6518782
-1.00626	zitten dus	-0.1340705
-0.9540693	zitten of	-0.4477582
-1.008756	zo lekker	-0.1340705
-1.008756	zo terug	-0.3508482
-0.6581647	zodat je	-0.1340705
-1.040186	zoek </s>
-1.326762	zoek is	-0.2259095
-0.6880764	zoek je	-0.09550879
-1.346062	zoek naar
-0.4545649	zoekt </s>
-1.065896	zoekt wat	-0.2259095
-0.9825842	zonder door	-0.2259095
-1.00626	zonder nog
-1.443172	zou fijn
-1.260583	zou ik
-1.353746	zou in
-1.233496	zou je	-0.2259095
-1.475111	zou staan	-0.1340705
-1.475111	zou vinden	-0.3508482
-0.6820837	zwart of	-0.2259095
-0.3400539	zwarte skinny	-0.2259095

\3-grams:
-0.4163738	denken aan een
-0.02482185	gaf aan dat
-0.538776	keuzes aan jeans
-0.5169576	vroeg aan wat
-0.08999466	ze aan een
-0.6687051	van achter de
-0.6722215	van achter in
-0.2810151	<s> ah dan
-0.1931267	door al jouw
-0.3099762	stelde allemaal gesloten
-0.3476902	klant als je
-0.2377032	werk als ze
-0.3857453	een andere jeans
-0.5851718	om antwoord 2
-0.8736127	een beetje donkere
-0.4986745	en begroet haar
-0.1556512	hoe begroet je
-0.1556512	positie begroet je
-0.3830157	het begroeten van
-0.3839237	haar behoefte helemaal
-0.3995062	ik ben zo
-0.3448354	buurt bent </s>
-0.3839237	in beweging en
-0.5584616	broeken bij </s>
-0.58934	broeken bij ik
-1.107323	broeken bij kon
-0.6596966	net binnen nieuwe
-0.276396	donker blauw of
-0.2197877	donkerblauwe boot cut
-0.8219846	voor broek heb
-0.539794	voor broek zoek
-0.2132335	wat broeken bij
-0.7368234	wat broeken erbij
-0.3886491	haar buurt bent
-0.2545558	nieuwe collectie </s>
-0.5529342	boot cut die
-0.1416389	wat dacht je
-0.3656802	ah dan heb
-0.6765747	je dan te
-0.5296609	maat dan pak
-0.8481824	aan dat de
-0.842006	aan dat je
-0.2518259	aan dat ze
-0.5280733	denk dat ik
-0.373826	je dat wel
-0.51682	klant dat een
-0.9004472	nee dat is
-0.9205092	nee dat staat
-0.5230358	van dat wat
-0.01882429	<s> de klant
-0.5585744	achter de kassa
-0.6747487	dat de donkerblauwe
-0.6743136	dat de zwarte
-0.2770941	groet de klant
-0.5030741	in de winkel
-0.124452	je de klant
-0.5585744	op de taille
-0.2770941	van de klant
-0.2770941	vertelde de klant
-0.2770941	wat de klant
-0.3839237	ik denk dat
-0.1435407	te denken </s>
-1.193456	te denken aan
-0.3614338	over deze knop
-0.5689936	van deze zwarte
-0.2643103	cut die jij
-0.2643103	skinny die jij
-0.2786995	<s> dit is
-0.2545558	wel doen </s>
-0.3615525	of donker blauw
-0.281596	de donkerblauwe boot
-0.468112	beetje donkere kleur
-0.4191243	een donkere </s>
-0.2448338	overdonderd door al
-0.2909536	reageerde door te
-0.2909536	zonder door te
-0.2153892	<s> dus je
-0.4424075	zitten dus een
-0.3668747	ik echt precies
-0.4845524	<s> een skinny
-1.142195	aan een hoog
-0.1938296	aan een lichte
-0.5129241	dat een lichte
-0.5108633	dus een hoog
-0.5682241	eens een keer
-0.567706	even een donkere
-0.5427906	geval een beetje
-0.8131756	in een beetje
-0.7590687	in een lichte
-0.6698537	je een hoog
-0.4845524	keer een skinny
-0.3879068	misschien een leuk
-0.254136	naar een leuke
-0.5410442	of een laag
-0.5452995	stelde een hele
-0.5118948	wat een keuzes
-0.5682241	weer een andere
-0.8099264	wilt een laag
-0.7102425	wilt een skinny
-0.6762998	ze een hoog
-0.6528447	ze een skinny
-0.7268767	ze een vraag
-0.4424075	ik eens een
-0.3739933	<s> en moet
-0.5463718	beweging en groet
-0.2102892	had en wat
-0.8187824	oke en zat
-0.8127089	oke en zoek
-0.8149559	oogcontact en begroet
-0.8187824	oogcontact en ga
-0.4344668	prima en wat
-0.3604803	ik er even
-0.4976429	je er wat
-0.1125156	pak er even
-0.1931267	broeken erbij ging
-0.3785042	net erboven of
-0.3448354	of eronder </s>
-0.08458124	er even wat
-0.7388502	wel even een
-0.7840946	wel even verder
-0.2327744	model fijn zou
-0.8557575	slim fit in
-0.2198146	en ga verder
-0.2198146	ik ga verder
-0.4710914	kon gaan pakken
-0.4191243	te gaan </s>
-0.2941638	jij gaf aan
-0.8845007	jij gaf een
-0.02581964	klant gaf aan
-0.1751489	maar gaf aan
-0.5883879	in gedachten </s>
-0.9054169	in gedachten had
-0.9199994	in gedachten qua
-0.074863	hebt gekozen voor
-0.6187968	presenteerde gelijk weer
-0.2233864	je genoeg informatie
-0.4518693	weet genoeg ik
-0.1183636	jij gepresenteerd hebt
-0.1684363	allemaal gesloten vragen
-0.1684363	lijst gesloten vragen
-0.5864854	ieder geval een
-0.1929562	erbij ging pakken
-0.8219846	helemaal goed hebt
-0.5228413	helemaal goed ik
-0.3785042	en groet de
-0.3964061	begroet haar </s>
-0.5425262	in haar buurt
-0.7094569	je haar behoefte
-0.536427	kleur haar niet
-0.5419568	naar haar maat
-0.3693338	voor haar is
-0.3852401	gedachten had </s>
-0.2432697	informatie had en
-0.3852401	verteld had </s>
-0.4064565	wat had je
-0.3448354	jeans he </s>
-0.2977276	broek heb je
-0.3424996	dan heb ik
-0.6272654	gepresenteerd hebt helemaal
-0.6272654	gepresenteerd hebt niet
-0.5199301	goed hebt samengevat
-0.09060854	jij hebt gekozen
-0.1923555	vraag heeft komt
-0.2828595	een hele lijst
-0.3037741	<s> helemaal goed
-0.4220897	behoefte helemaal goed
-0.3708864	hebt helemaal niks
-0.1103976	u helpen </s>
-0.5302712	<s> het begroeten
-0.324666	<s> hoe begroet
-0.3214194	een hoog model
-0.6238739	een hoog of
-0.420596	jeans hoog model
-0.5805913	juist hoog licht
-0.4518693	niet hoor ik
-0.1459557	moet ie laag
-0.2828595	in ieder geval
-0.811009	<s> ik maak
-0.24235	bij ik ben
-0.5648484	dat ik eens
-0.4878328	genoeg ik pak
-0.641483	goed ik pak
-0.384481	heb ik echt
-0.4878328	hoor ik pak
-0.2532986	kan ik u
-0.4878328	mooi ik pak
-0.5648484	oke ik weet
-0.561835	pak ik er
-0.5653878	vind ik nooit
-0.6974049	voor ik maak
-0.5413873	achter in de
-0.4594747	fit in een
-0.3778581	je in gedachten
-0.9938117	je in haar
-0.5539397	komt in beweging
-0.4594747	model in een
-0.4780289	ze in gedachten
-0.191292	genoeg informatie had
-0.5420915	dat is echt
-0.373747	dit is antwoord
-0.3412201	haar is </s>
-0.3603031	niet is wat
-0.3610004	wat is je
-0.372312	zoek is naar
-0.6908116	als je in
-0.1780833	begroet je de
-0.3729503	beweeg je vinger
-0.3474391	dacht je van
-0.4275038	dat je genoeg
-0.9670762	dat je haar
-0.2536324	dus je wilt
-0.6908116	had je in
-0.6908116	heb je in
-0.3869937	is je maat
-0.5670866	klant je verteld
-0.5406424	met je vinger
-0.5371111	zat je dan
-0.5633345	zodat je er
-0.8379807	zoek je </s>
-0.8380986	zoek je een
-0.3840231	zou je dat
-0.5374511	aan jeans he
-0.4225143	andere jeans zonder
-0.4225143	een jeans zonder
-1.082078	skinny jeans hoog
-0.3791812	skinny jeans wil
-0.906234	<s> jij gaf
-0.6831249	<s> jij hebt
-1.16974	<s> jij presenteerde
-1.399343	<s> jij reageerde
-1.020331	<s> jij stelde
-1.677248	<s> jij vertelde
-0.9093739	<s> jij vroeg
-0.1499967	die jij gepresenteerd
-0.3779715	skinny jij zou
-0.3794252	wat jij zoekt
-0.4970822	staat jou niet
-0.1920007	al jouw vragen
-0.3746485	of juist hoog
-0.2820248	waarmee kan ik
-0.3448354	de kassa </s>
-0.3643742	een keer een
-0.6134627	een keuzes aan
-0.6756333	de klant </s>
-1.704365	de klant als
-1.692775	de klant dat
-0.3005568	de klant gaf
-1.609752	de klant je
-1.235788	de klant was
-0.3863824	donkere kleur </s>
-0.9135004	lichte kleur </s>
-1.237969	lichte kleur haar
-0.2762254	lichte kleur zit
-0.3863824	qua kleur </s>
-0.7015699	voor kleur ze
-0.2545558	leuk kleurtje </s>
-0.4716246	<s> klik hier
-0.4692168	of klik om
-0.281596	deze knop om
-0.2319451	heeft komt ze
-0.4923898	je komt in
-0.3882086	bij kon gaan
-0.1960511	een laag model
-0.1820186	ie laag zitten
-0.3962464	of laag model
-0.1756432	wel langs </s>
-0.3882086	zo lekker zitten
-0.2828595	een leuk kleurtje
-0.1931267	een leuke spijkerbroek
-0.5160061	<s> licht nee
-0.3536998	hoog licht of
-0.09518424	een lichte kleur
-0.28258	hele lijst gesloten
-0.468112	naar links over
-0.1931267	ik maak oogcontact
-0.2331132	vragen maar gaf
-0.5032241	haar maat zodat
-0.6557474	je maat dan
-0.2394127	verder met mijn
-0.1931267	met mijn werk
-0.2673027	of misschien een
-0.5292308	hoog model fijn
-1.046654	hoog model in
-1.063784	hoog model zou
-0.8149624	laag model </s>
-0.9522541	laag model op
-0.948903	laag model slim
-0.5356818	voor model ze
-0.2567102	en moet ie
-0.3722656	<s> mooi ik
-0.2894558	is naar een
-0.5368979	rechts naar links
-0.5315245	vroeg naar haar
-0.3443575	licht nee dat
-0.3443575	nou nee dat
-0.4716246	of net erboven
-0.3333184	skinny net binnen
-0.5319412	haar niet zou
-0.3660189	hebt niet is
-0.5366843	jou niet hoor
-0.2211494	binnen nieuwe collectie
-0.1678323	helemaal niks voor
-0.3882086	ik nooit zo
-0.3818683	blauw of zwart
-0.5569914	erboven of eronder
-0.7817358	hoog of een
-0.8305554	hoog of laag
-0.3798213	licht of donker
-0.5564178	taille of net
-0.5564178	zien of klik
-0.1558939	zitten of juist
-0.3818683	zwart of misschien
-0.4504915	<s> oke en
-0.9148526	<s> oke ik
-0.4994476	klik om verder
-0.3498058	knop om antwoord
-0.191292	maak oogcontact en
-0.4931471	model op de
-0.2302346	ze op zoek
-0.3624252	links over deze
-0.191292	was overdonderd door
-0.4820137	dan pak ik
-0.255443	ik pak er
-1.015207	ik pak wel
-0.2004957	gaan pakken </s>
-0.1103976	ging pakken </s>
-0.270124	<s> perfect wat
-0.1923555	welke positie begroet
-0.3193433	echt precies wat
-0.4457634	jij presenteerde gelijk
-0.3839237	<s> prima en
-0.1343727	wil proberen </s>
-0.3857453	gedachten qua kleur
-0.2798557	jij reageerde door
-0.3839237	van rechts naar
-0.3448354	hebt samengevat </s>
-0.2347363	een skinny jeans
-0.8917971	een skinny jij
-0.6298497	zwarte skinny die
-0.6333514	zwarte skinny net
-0.1992843	model slim fit
-0.4079352	leuke spijkerbroek </s>
-0.3448354	zou staan </s>
-0.3882086	dat staat jou
-0.8176549	jij stelde allemaal
-0.7645491	jij stelde een
-0.3785042	de taille of
-0.490944	dan te denken
-0.2157163	door te vragen
-0.5563403	verder te gaan
-0.490944	zat te denken
-0.09991618	zit te denken
-0.1756432	zo terug </s>
-0.1929562	ik u helpen
-0.4558703	<s> van achter
-0.5342945	begroeten van de
-0.2177708	je van deze
-0.5407991	samenvatting van dat
-0.7144594	vinger van rechts
-0.4558703	voor van achter
-0.1693958	<s> vanuit welke
-0.4616505	even verder </s>
-0.2380932	ga verder met
-0.5062604	om verder te
-0.3839237	je verteld had
-0.4593737	jij vertelde de
-0.3722656	laag vind ik
-0.1756432	zou vinden </s>
-0.5500581	je vinger van
-0.8105937	gekozen voor ik
-1.148211	gekozen voor van
-0.500764	niks voor haar
-0.4821471	wat voor broek
-0.882665	wat voor kleur
-1.20831	wat voor model
-0.1931267	een vraag heeft
-0.2133691	gesloten vragen </s>
-0.244069	jouw vragen maar
-0.3179008	te vragen </s>
-0.9236249	te vragen wat
-0.8472413	jij vroeg aan
-0.8498908	jij vroeg naar
-0.8069101	jij vroeg wat
-0.1931267	klant was overdonderd
-0.31865	<s> wat voor
-0.4464883	aan wat voor
-0.5536086	dat wat de
-0.4072726	en wat broeken
-1.018561	en wat had
-0.529494	er wat broeken
-0.1544517	even wat broeken
-0.3834518	is wat ze
-0.3823101	perfect wat is
-0.3840238	precies wat jij
-0.4464883	vragen wat voor
-0.4464883	vroeg wat voor
-0.3667818	zoekt wat dacht
-0.4718797	gelijk weer een
-0.4710914	ik weet genoeg
-0.3760797	dat wel doen
-0.4435368	pak wel even
-0.2475773	ze wel langs
-0.1931267	vanuit welke positie
-0.1920007	mijn werk als
-0.1685759	jeans wil proberen
-0.2131492	je wilt een
-0.5587431	de winkel </s>
-0.4486924	en zat je
-0.4593737	ze zat te
-0.2085932	als ze een
-0.4733934	dat ze aan
-0.4342986	dat ze een
-1.143689	dat ze op
-0.5353807	kleur ze in
-0.2449373	komt ze wel
-0.54579	model ze zat
-0.3746544	wat ze zoekt
-0.6442146	te zien of
-0.2811216	fijn zijn </s>
-0.0843666	kleur zit te
-0.1655832	laag zitten of
-0.4710914	lekker zitten dus
-0.2233864	ben zo terug
-0.4716246	nooit zo lekker
-0.3696192	maat zodat je
-0.2777883	broek zoek je
-0.3806822	en zoek je
-0.4812194	op zoek is
-0.3404096	jij zoekt wat
-0.2116297	ze zoekt </s>
-0.4417089	jeans zonder door
-0.2447982	fijn zou vinden
-0.3562462	jij zou je
-0.5373046	niet zou staan
-0.276396	of zwart of
-0.1692505	de zwarte skinny
-0.1692505	deze zwarte skinny

\end\